digraph Tree {
node [shape=box, style="filled, rounded", color="black", fontname=helvetica] ;
edge [fontname=helvetica] ;
0 [label="x2 <= 0.197\ngini = 0.5\nsamples = 80000\nvalue = [40078, 39922]\nclass = A", fillcolor="#fffffe"] ;
1 [label="x1 <= -0.475\ngini = 0.328\nsamples = 37436\nvalue = [7730, 29706]\nclass = B", fillcolor="#6db7ec"] ;
0 -> 1 [labeldistance=2.5, labelangle=45, headlabel="True"] ;
5 [label="x1 <= -0.681\ngini = 0.216\nsamples = 3671\nvalue = [3220, 451]\nclass = A", fillcolor="#e99355"] ;
1 -> 5 ;
17 [label="gini = 0.095\nsamples = 2811\nvalue = [2671, 140]\nclass = A", fillcolor="#e68843"] ;
5 -> 17 ;
18 [label="gini = 0.462\nsamples = 860\nvalue = [549, 311]\nclass = A", fillcolor="#f4c8a9"] ;
5 -> 18 ;
6 [label="x2 <= -0.107\ngini = 0.231\nsamples = 33765\nvalue = [4510, 29255]\nclass = B", fillcolor="#58ace9"] ;
1 -> 6 ;
11 [label="x2 <= -0.397\ngini = 0.137\nsamples = 22762\nvalue = [1689, 21073]\nclass = B", fillcolor="#49a5e7"] ;
6 -> 11 ;
27 [label="gini = 0.074\nsamples = 13043\nvalue = [505, 12538]\nclass = B", fillcolor="#41a1e6"] ;
11 -> 27 ;
28 [label="x1 <= 1.52\ngini = 0.214\nsamples = 9719\nvalue = [1184, 8535]\nclass = B", fillcolor="#54abe9"] ;
11 -> 28 ;
31 [label="gini = 0.263\nsamples = 7093\nvalue = [1104, 5989]\nclass = B", fillcolor="#5dafea"] ;
28 -> 31 ;
32 [label="gini = 0.059\nsamples = 2626\nvalue = [80, 2546]\nclass = B", fillcolor="#3fa0e6"] ;
28 -> 32 ;
12 [label="x1 <= 1.543\ngini = 0.381\nsamples = 11003\nvalue = [2821, 8182]\nclass = B", fillcolor="#7dbfee"] ;
6 -> 12 ;
13 [label="x1 <= 0.512\ngini = 0.444\nsamples = 8100\nvalue = [2699, 5401]\nclass = B", fillcolor="#9ccef2"] ;
12 -> 13 ;
25 [label="x1 <= -0.227\ngini = 0.38\nsamples = 3595\nvalue = [918, 2677]\nclass = B", fillcolor="#7dbfee"] ;
13 -> 25 ;
35 [label="gini = 0.493\nsamples = 660\nvalue = [292, 368]\nclass = B", fillcolor="#d6ebfa"] ;
25 -> 35 ;
36 [label="gini = 0.336\nsamples = 2935\nvalue = [626, 2309]\nclass = B", fillcolor="#6fb8ec"] ;
25 -> 36 ;
26 [label="x1 <= 1.259\ngini = 0.478\nsamples = 4505\nvalue = [1781, 2724]\nclass = B", fillcolor="#baddf6"] ;
13 -> 26 ;
33 [label="gini = 0.493\nsamples = 3360\nvalue = [1486, 1874]\nclass = B", fillcolor="#d6ebfa"] ;
26 -> 33 ;
34 [label="gini = 0.383\nsamples = 1145\nvalue = [295, 850]\nclass = B", fillcolor="#7ebfee"] ;
26 -> 34 ;
14 [label="gini = 0.081\nsamples = 2903\nvalue = [122, 2781]\nclass = B", fillcolor="#42a1e6"] ;
12 -> 14 ;
2 [label="x1 <= 1.458\ngini = 0.365\nsamples = 42564\nvalue = [32348, 10216]\nclass = A", fillcolor="#eda978"] ;
0 -> 2 [labeldistance=2.5, labelangle=-45, headlabel="False"] ;
3 [label="x2 <= 0.528\ngini = 0.268\nsamples = 37816\nvalue = [31792, 6024]\nclass = A", fillcolor="#ea995f"] ;
2 -> 3 ;
7 [label="x1 <= -0.463\ngini = 0.43\nsamples = 12094\nvalue = [8305, 3789]\nclass = A", fillcolor="#f1ba93"] ;
3 -> 7 ;
9 [label="gini = 0.126\nsamples = 3334\nvalue = [3109, 225]\nclass = A", fillcolor="#e78a47"] ;
7 -> 9 ;
10 [label="x1 <= 0.446\ngini = 0.483\nsamples = 8760\nvalue = [5196, 3564]\nclass = A", fillcolor="#f7d7c1"] ;
7 -> 10 ;
21 [label="x2 <= 0.352\ngini = 0.5\nsamples = 4348\nvalue = [2228, 2120]\nclass = A", fillcolor="#fef9f5"] ;
10 -> 21 ;
29 [label="gini = 0.486\nsamples = 1970\nvalue = [822, 1148]\nclass = B", fillcolor="#c7e3f8"] ;
21 -> 29 ;
30 [label="gini = 0.483\nsamples = 2378\nvalue = [1406, 972]\nclass = A", fillcolor="#f7d8c2"] ;
21 -> 30 ;
22 [label="gini = 0.44\nsamples = 4412\nvalue = [2968, 1444]\nclass = A", fillcolor="#f2be99"] ;
10 -> 22 ;
8 [label="x2 <= 0.757\ngini = 0.159\nsamples = 25722\nvalue = [23487, 2235]\nclass = A", fillcolor="#e78d4c"] ;
3 -> 8 ;
19 [label="x1 <= -0.556\ngini = 0.268\nsamples = 8073\nvalue = [6786, 1287]\nclass = A", fillcolor="#ea995f"] ;
8 -> 19 ;
23 [label="gini = 0.061\nsamples = 2147\nvalue = [2079, 68]\nclass = A", fillcolor="#e6853f"] ;
19 -> 23 ;
24 [label="x1 <= 0.382\ngini = 0.327\nsamples = 5926\nvalue = [4707, 1219]\nclass = A", fillcolor="#eca26c"] ;
19 -> 24 ;
37 [label="gini = 0.383\nsamples = 3177\nvalue = [2357, 820]\nclass = A", fillcolor="#eead7e"] ;
24 -> 37 ;
38 [label="gini = 0.248\nsamples = 2749\nvalue = [2350, 399]\nclass = A", fillcolor="#e9965b"] ;
24 -> 38 ;
20 [label="gini = 0.102\nsamples = 17649\nvalue = [16701, 948]\nclass = A", fillcolor="#e68844"] ;
8 -> 20 ;
4 [label="x1 <= 1.735\ngini = 0.207\nsamples = 4748\nvalue = [556, 4192]\nclass = B", fillcolor="#53aae8"] ;
2 -> 4 ;
15 [label="gini = 0.426\nsamples = 1431\nvalue = [441, 990]\nclass = B", fillcolor="#91c9f1"] ;
4 -> 15 ;
16 [label="gini = 0.067\nsamples = 3317\nvalue = [115, 3202]\nclass = B", fillcolor="#40a1e6"] ;
4 -> 16 ;
}